svm_type c_svc
kernel_type rbf
gamma 1.0E-4
nr_class 2
total_sv 478
rho -0.7117284536361694
label 1 -1
nr_sv 239 239
SV
1.0 1:-0.860107 2:-0.111111 3:-1.0 4:-1.0 5:-1.0 6:-0.777778 7:-1.0 8:-0.555556 9:-1.0 10:-1.0 
1.0 1:-0.859671 2:-0.111111 3:-0.333333 4:-0.333333 5:-0.111111 6:0.333333 7:1.0 8:-0.555556 9:-0.777778 10:-1.0 
1.0 1:-0.857807 2:-0.555556 3:-1.0 4:-1.0 5:-1.0 6:-0.777778 7:-0.777778 8:-0.555556 9:-1.0 10:-1.0 
1.0 1:-0.85768 2:0.111111 3:0.555556 4:0.555556 5:-1.0 6:-0.555556 7:-0.333333 8:-0.555556 9:0.333333 10:-1.0 
1.0 1:-0.857569 2:-0.333333 3:-1.0 4:-1.0 5:-0.555556 6:-0.777778 7:-1.0 8:-0.555556 9:-1.0 10:-1.0 
1.0 1:-0.857408 2:-1.0 3:-1.0 4:-1.0 5:-1.0 6:-0.777778 7:1.0 8:-0.555556 9:-1.0 10:-1.0 
1.0 1:-0.857339 2:-0.777778 3:-1.0 4:-0.777778 5:-1.0 6:-0.777778 7:-1.0 8:-0.555556 9:-1.0 10:-1.0 
1.0 1:-0.855171 2:-0.333333 3:-0.777778 4:-1.0 5:-1.0 6:-0.777778 7:-1.0 8:-0.777778 9:-1.0 10:-1.0 
1.0 1:-0.85354 2:-1.0 3:-1.0 4:-1.0 5:-1.0 6:-0.777778 7:-0.555556 8:-0.555556 9:-1.0 10:-1.0 
1.0 1:-0.852842 2:-0.333333 3:-1.0 4:-1.0 5:-1.0 6:-0.777778 7:-1.0 8:-0.777778 9:-1.0 10:-1.0 
1.0 1:-0.852671 2:-0.333333 3:-1.0 4:-1.0 5:-1.0 6:-0.777778 7:-1.0 8:-0.555556 9:-1.0 10:-1.0 
1.0 1:-0.852536 2:0.111111 3:-1.0 4:-1.0 5:-1.0 6:-0.777778 7:-1.0 8:-0.555556 9:-1.0 10:-1.0 
1.0 1:-0.850107 2:-0.111111 3:-1.0 4:-1.0 5:-1.0 6:-0.777778 7:-1.0 8:-0.777778 9:-1.0 10:-1.0 
1.0 1:-0.848968 2:-0.777778 3:-1.0 4:-1.0 5:-0.777778 6:-0.777778 7:-1.0 8:-0.555556 9:-1.0 10:-1.0 
1.0 1:-0.848891 2:-0.555556 3:-1.0 4:-0.777778 5:-1.0 6:-0.777778 7:-1.0 8:-0.777778 9:-1.0 10:-1.0 
1.0 1:-0.847895 2:0.111111 3:-0.777778 4:-1.0 5:-1.0 6:-1.0 7:-1.0 8:0.333333 9:-1.0 10:-1.0 
1.0 1:-0.844265 2:-0.333333 3:-1.0 4:-1.0 5:-0.555556 6:-0.777778 7:-1.0 8:-0.555556 9:-1.0 10:-1.0 
1.0 1:-0.842614 2:-0.333333 3:-1.0 4:-1.0 5:-1.0 6:-0.777778 7:-1.0 8:-0.555556 9:-1.0 10:-1.0 
1.0 1:-0.841902 2:-0.111111 3:-1.0 4:-0.555556 5:-1.0 6:-0.777778 7:-1.0 8:-0.777778 9:-1.0 10:-1.0 
1.0 1:-0.841494 2:-1.0 3:-0.555556 4:-0.555556 5:-0.777778 6:-0.777778 7:-1.0 8:0.333333 9:-0.777778 10:-1.0 
1.0 1:-0.840502 2:-1.0 3:-1.0 4:-0.777778 5:-1.0 6:-0.777778 7:-0.777778 8:-0.333333 9:-0.777778 10:-1.0 
1.0 1:-0.840344 2:-1.0 3:-1.0 4:-0.333333 5:-1.0 6:-0.777778 7:-1.0 8:-0.777778 9:-1.0 10:-1.0 
1.0 1:-0.840241 2:-0.111111 3:-0.555556 4:-1.0 5:-0.777778 6:-0.777778 7:-1.0 8:-0.777778 9:-1.0 10:-1.0 
1.0 1:-0.840227 2:-0.555556 3:-1.0 4:-1.0 5:-1.0 6:-0.777778 7:-0.555556 8:-0.555556 9:-1.0 10:-1.0 
1.0 1:-0.839626 2:-0.777778 3:-0.777778 4:-0.777778 5:-1.0 6:-1.0 7:-1.0 8:0.333333 9:-1.0 10:-1.0 
1.0 1:-0.838607 2:-0.333333 3:-1.0 4:-1.0 5:-0.777778 6:-0.777778 7:-1.0 8:-0.777778 9:-1.0 10:-1.0 
1.0 1:-0.838607 2:-0.111111 3:-0.777778 4:-1.0 5:-1.0 6:-0.777778 7:-1.0 8:-0.555556 9:-1.0 10:-1.0 
1.0 1:-0.838149 2:-0.555556 3:-1.0 4:-1.0 5:-1.0 6:-0.777778 7:-0.777778 8:0.333333 9:-1.0 10:-1.0 
1.0 1:-0.83736 2:-0.333333 3:-1.0 4:-1.0 5:-1.0 6:-0.777778 7:-1.0 8:-0.555556 9:-1.0 10:-1.0 
1.0 1:-0.83688 2:-0.777778 3:-1.0 4:-1.0 5:-0.777778 6:-0.555556 7:-1.0 8:-0.777778 9:-1.0 10:-1.0 
1.0 1:-0.836553 2:-0.333333 3:-1.0 4:-1.0 5:-1.0 6:-0.777778 7:-1.0 8:-0.555556 9:-1.0 10:-1.0 
1.0 1:-0.83535 2:-0.111111 3:-1.0 4:-1.0 5:-1.0 6:-0.777778 7:-1.0 8:-0.555556 9:-1.0 10:-1.0 
1.0 1:-0.835099 2:-0.333333 3:-1.0 4:-0.777778 5:-1.0 6:-0.777778 7:-1.0 8:-0.555556 9:-1.0 10:-1.0 
1.0 1:-0.834453 2:-1.0 3:-0.555556 4:-1.0 5:-0.777778 6:-0.777778 7:-0.777778 8:-0.111111 9:-0.555556 10:-0.777778 
1.0 1:-0.834238 2:-0.555556 3:-0.555556 4:-0.777778 5:-1.0 6:-0.777778 7:-0.555556 8:-0.555556 9:-1.0 10:-1.0 
1.0 1:-0.834221 2:-1.0 3:-1.0 4:-1.0 5:-1.0 6:-0.777778 7:-0.111111 8:-1.0 9:-1.0 10:-1.0 
1.0 1:-0.834221 2:0.555556 3:-0.555556 4:-0.555556 5:-1.0 6:-0.777778 7:-0.777778 8:-0.555556 9:-0.777778 10:-1.0 
1.0 1:-0.834196 2:-1.0 3:-1.0 4:-1.0 5:-1.0 6:-0.333333 7:-0.555556 8:-1.0 9:-1.0 10:-1.0 
1.0 1:-0.834171 2:-0.555556 3:-0.777778 4:-1.0 5:-1.0 6:-0.777778 7:-0.777778 8:-0.555556 9:-1.0 10:-1.0 
1.0 1:-0.834115 2:-1.0 3:-1.0 4:-0.777778 5:-0.777778 6:-0.777778 7:-1.0 8:-0.555556 9:-1.0 10:-1.0 
1.0 1:-0.834115 2:-0.333333 3:-0.777778 4:-1.0 5:-1.0 6:-0.777778 7:-0.777778 8:-0.555556 9:-1.0 10:-1.0 
1.0 1:-0.833671 2:-0.555556 3:-1.0 4:-1.0 5:-1.0 6:-0.777778 7:-1.0 8:-0.555556 9:-1.0 10:-1.0 
1.0 1:-0.833599 2:-1.0 3:-1.0 4:-1.0 5:-1.0 6:1.0 7:-1.0 8:-1.0 9:-1.0 10:-1.0 
1.0 1:-0.833439 2:-0.111111 3:-1.0 4:-0.555556 5:-1.0 6:-0.777778 7:-1.0 8:-0.777778 9:-1.0 10:-1.0 
1.0 1:-0.833149 2:-0.555556 3:-1.0 4:-1.0 5:-1.0 6:-0.777778 7:-1.0 8:-0.777778 9:-0.777778 10:-1.0 
1.0 1:-0.833103 2:-0.555556 3:-1.0 4:-1.0 5:-1.0 6:-0.555556 7:-1.0 8:-0.777778 9:-1.0 10:-1.0 
1.0 1:-0.833025 2:-0.111111 3:-1.0 4:-1.0 5:-1.0 6:-0.777778 7:-0.777778 8:-0.555556 9:-0.555556 10:-1.0 
1.0 1:-0.832868 2:-0.333333 3:-1.0 4:-1.0 5:-1.0 6:-0.777778 7:-1.0 8:-0.777778 9:-1.0 10:-1.0 
1.0 1:-0.832743 2:-0.333333 3:-1.0 4:-0.777778 5:-1.0 6:-0.777778 7:-1.0 8:-0.777778 9:-1.0 10:-1.0 
1.0 1:-0.832602 2:-1.0 3:-1.0 4:-1.0 5:-1.0 6:-0.777778 7:-0.111111 8:-1.0 9:-1.0 10:-1.0 
1.0 1:-0.832114 2:-0.555556 3:-1.0 4:-1.0 5:-0.555556 6:0.555556 7:-1.0 8:-0.111111 9:0.555556 10:-1.0 
1.0 1:-0.831675 2:-0.333333 3:-1.0 4:-1.0 5:-1.0 6:-0.777778 7:-0.555556 8:-1.0 9:-1.0 10:-1.0 
1.0 1:-0.831272 2:-1.0 3:-0.777778 4:-0.777778 5:-1.0 6:-0.777778 7:-1.0 8:-0.777778 9:-1.0 10:-1.0 
1.0 1:-0.830676 2:-0.333333 3:-1.0 4:-1.0 5:-1.0 6:-0.777778 7:-1.0 8:-0.555556 9:-0.777778 10:-1.0 
1.0 1:-0.830648 2:-0.555556 3:-1.0 4:-1.0 5:-1.0 6:-0.777778 7:-1.0 8:-0.555556 9:-1.0 10:-1.0 
1.0 1:-0.830623 2:-1.0 3:-1.0 4:-1.0 5:-0.777778 6:-1.0 7:-0.555556 8:-1.0 9:-1.0 10:0.333333 
1.0 1:-0.830542 2:-0.333333 3:-1.0 4:-1.0 5:-1.0 6:-0.777778 7:-0.777778 8:-0.555556 9:-0.777778 10:-1.0 
1.0 1:-0.830443 2:-0.555556 3:-1.0 4:-1.0 5:-1.0 6:-0.777778 7:-1.0 8:-0.555556 9:-1.0 10:-1.0 
1.0 1:-0.829923 2:-0.333333 3:-1.0 4:-1.0 5:-1.0 6:-0.777778 7:-1.0 8:-0.555556 9:-1.0 10:-1.0 
1.0 1:-0.829509 2:0.111111 3:-1.0 4:-1.0 5:-1.0 6:-0.777778 7:-1.0 8:-0.555556 9:-1.0 10:-1.0 
1.0 1:-0.829 2:-1.0 3:-0.777778 4:-0.555556 5:-1.0 6:-0.777778 7:-1.0 8:-0.555556 9:-1.0 10:-1.0 
1.0 1:-0.828413 2:-0.111111 3:-1.0 4:-1.0 5:-1.0 6:-0.777778 7:-1.0 8:-0.777778 9:-1.0 10:-1.0 
1.0 1:-0.828385 2:-0.555556 3:-1.0 4:-1.0 5:-1.0 6:-0.777778 7:-1.0 8:-0.555556 9:-1.0 10:-1.0 
1.0 1:-0.828385 2:-0.333333 3:-1.0 4:-1.0 5:-1.0 6:-0.777778 7:-1.0 8:-0.555556 9:-1.0 10:-1.0 
1.0 1:-0.828243 2:0.555556 3:-0.333333 4:-0.333333 5:-0.111111 6:-0.333333 7:0.333333 8:0.333333 9:0.555556 10:-0.777778 
1.0 1:-0.828241 2:-0.111111 3:-1.0 4:-1.0 5:-0.333333 6:-0.777778 7:-1.0 8:-0.555556 9:-1.0 10:-1.0 
1.0 1:-0.827694 2:-0.111111 3:-1.0 4:-1.0 5:-1.0 6:-0.777778 7:-1.0 8:-0.555556 9:-1.0 10:-1.0 
1.0 1:-0.827342 2:-0.111111 3:-1.0 4:-1.0 5:-1.0 6:-1.0 7:-1.0 8:-0.555556 9:-1.0 10:-1.0 
1.0 1:-0.826661 2:0.111111 3:-1.0 4:-0.555556 5:-1.0 6:-0.777778 7:-1.0 8:-0.555556 9:-1.0 10:-1.0 
1.0 1:-0.825505 2:0.555556 3:-0.333333 4:0.111111 5:-0.555556 6:-0.555556 7:-1.0 8:-0.333333 9:-0.555556 10:-1.0 
1.0 1:-0.824857 2:-0.555556 3:-0.555556 4:-0.777778 5:-1.0 6:-0.555556 7:-1.0 8:-0.555556 9:0.111111 10:-1.0 
1.0 1:-0.819714 2:-0.111111 3:-1.0 4:-0.555556 5:-0.555556 6:-0.777778 7:-0.777778 8:-0.777778 9:-0.555556 10:-1.0 
1.0 1:-0.818876 2:-0.555556 3:-1.0 4:-1.0 5:-0.555556 6:-1.0 7:-1.0 8:-0.555556 9:-1.0 10:-1.0 
1.0 1:-0.990339 2:-1.0 3:-1.0 4:-1.0 5:-1.0 6:-0.777778 7:-0.111111 8:-0.111111 9:-1.0 10:-1.0 
1.0 1:-0.817131 2:-0.111111 3:-1.0 4:-1.0 5:-0.777778 6:-0.777778 7:-0.777778 8:-0.555556 9:-1.0 10:-1.0 
1.0 1:-0.984444 2:-0.333333 3:-1.0 4:-1.0 5:-1.0 6:-0.777778 7:-1.0 8:-0.555556 9:0.111111 10:-1.0 
1.0 1:-0.857569 2:0.111111 3:-0.555556 4:-0.555556 5:-0.111111 6:-0.555556 7:1.0 8:-0.555556 9:-0.111111 10:-0.555556 
1.0 1:-0.830443 2:-0.555556 3:-1.0 4:-1.0 5:-1.0 6:-0.777778 7:-1.0 8:-0.555556 9:-1.0 10:-1.0 
1.0 1:-0.973177 2:-0.111111 3:0.333333 4:0.333333 5:-1.0 6:-0.111111 7:0.555556 8:-0.555556 9:-0.333333 10:-1.0 
1.0 1:-0.832868 2:-0.111111 3:-1.0 4:-0.333333 5:-1.0 6:-0.777778 7:-1.0 8:-0.555556 9:-0.777778 10:-1.0 
1.0 1:-0.948013 2:-0.111111 3:-1.0 4:-1.0 5:-1.0 6:-0.777778 7:-1.0 8:-0.555556 9:-1.0 10:-1.0 
1.0 1:-0.94502 2:-0.555556 3:-1.0 4:-1.0 5:-1.0 6:-0.777778 7:-1.0 8:-0.555556 9:-0.777778 10:-1.0 
1.0 1:-0.936837 2:-0.555556 3:-1.0 4:-1.0 5:-1.0 6:-0.777778 7:-1.0 8:-0.555556 9:-1.0 10:-1.0 
1.0 1:-0.93678 2:-0.777778 3:-1.0 4:-1.0 5:-0.777778 6:-0.777778 7:-1.0 8:-0.555556 9:-1.0 10:-1.0 
1.0 1:-0.929511 2:-0.555556 3:-1.0 4:-1.0 5:-1.0 6:-0.555556 7:-1.0 8:-0.777778 9:-1.0 10:-1.0 
1.0 1:-0.917427 2:-0.111111 3:-0.555556 4:-0.333333 5:-0.555556 6:-0.333333 7:-0.111111 8:-0.333333 9:0.333333 10:-1.0 
1.0 1:-0.916089 2:0.555556 3:-0.777778 4:-1.0 5:-1.0 6:-0.111111 7:-1.0 8:-1.0 9:-1.0 10:-1.0 
1.0 1:-0.908855 2:-0.555556 3:-1.0 4:-1.0 5:-1.0 6:-0.777778 7:-0.111111 8:-0.111111 9:-1.0 10:-1.0 
1.0 1:-0.902133 2:-1.0 3:-1.0 4:-1.0 5:-1.0 6:-0.111111 7:-1.0 8:-0.555556 9:-1.0 10:-1.0 
1.0 1:-0.901709 2:-0.333333 3:-0.333333 4:-0.333333 5:-0.333333 6:0.111111 7:-0.111111 8:0.333333 9:-0.555556 10:-1.0 
1.0 1:-0.899893 2:-0.555556 3:-1.0 4:-1.0 5:-1.0 6:-0.777778 7:-1.0 8:-0.555556 9:-1.0 10:-1.0 
1.0 1:-0.898443 2:-0.555556 3:-0.777778 4:-0.777778 5:-1.0 6:-0.777778 7:-1.0 8:-0.777778 9:-0.555556 10:-1.0 
1.0 1:-0.895213 2:-0.111111 3:-1.0 4:-1.0 5:-1.0 6:-0.777778 7:-1.0 8:-0.555556 9:-1.0 10:-0.777778 
1.0 1:-0.894453 2:-0.111111 3:-0.777778 4:-0.777778 5:-0.777778 6:-0.777778 7:-1.0 8:-0.777778 9:-0.777778 10:-1.0 
1.0 1:-0.885398 2:-0.111111 3:-0.777778 4:-0.777778 5:-0.777778 6:-0.555556 7:-1.0 8:-1.0 9:-0.555556 10:-1.0 
1.0 1:-0.88454 2:-0.111111 3:-1.0 4:-1.0 5:-0.555556 6:-0.777778 7:-1.0 8:-1.0 9:-1.0 10:-1.0 
1.0 1:-0.882987 2:-0.555556 3:-0.333333 4:-0.111111 5:-0.555556 6:0.333333 7:-0.555556 8:-0.333333 9:0.111111 10:-1.0 
1.0 1:-0.881353 2:-0.333333 3:-1.0 4:-1.0 5:-1.0 6:-0.555556 7:-1.0 8:-0.777778 9:-0.777778 10:-1.0 
1.0 1:-0.876813 2:-0.555556 3:-0.777778 4:-0.777778 5:-1.0 6:-0.333333 7:-0.555556 8:-0.777778 9:-1.0 10:-1.0 
1.0 1:-0.876761 2:-0.333333 3:-0.333333 4:-0.333333 5:-0.777778 6:-0.777778 7:-0.555556 8:-0.777778 9:-1.0 10:-1.0 
1.0 1:-0.935899 2:-0.333333 3:-0.555556 4:-0.777778 5:-1.0 6:-0.555556 7:-1.0 8:-0.777778 9:-1.0 10:-1.0 
1.0 1:-0.935766 2:-0.333333 3:-1.0 4:-0.777778 5:-1.0 6:-0.777778 7:-1.0 8:-0.777778 9:-1.0 10:-1.0 
1.0 1:-0.931586 2:-0.111111 3:-1.0 4:-1.0 5:-0.777778 6:-0.777778 7:-1.0 8:-0.777778 9:-1.0 10:-1.0 
1.0 1:-0.925725 2:-0.555556 3:-1.0 4:-0.777778 5:-1.0 6:-0.777778 7:-1.0 8:-0.777778 9:-1.0 10:-1.0 
1.0 1:-0.911227 2:-0.555556 3:-1.0 4:-1.0 5:-0.333333 6:-0.555556 7:-1.0 8:-0.777778 9:-0.777778 10:-1.0 
1.0 1:-0.907012 2:-0.111111 3:-0.555556 4:-0.333333 5:-1.0 6:-0.333333 7:-1.0 8:-0.555556 9:-1.0 10:-1.0 
1.0 1:-0.859737 2:-0.555556 3:-0.777778 4:-0.777778 5:-0.777778 6:-0.777778 7:-1.0 8:-0.555556 9:-0.777778 10:-1.0 
1.0 1:-0.849494 2:-0.555556 3:-0.555556 4:-0.777778 5:-0.777778 6:-0.555556 7:-1.0 8:-1.0 9:-0.777778 10:-0.555556 
1.0 1:-0.843 2:-0.111111 3:-0.555556 4:-0.555556 5:-0.777778 6:-0.555556 7:-1.0 8:-0.555556 9:-1.0 10:-1.0 
1.0 1:-0.842679 2:-0.111111 3:-1.0 4:-1.0 5:-1.0 6:-0.555556 7:-0.777778 8:-0.777778 9:-0.777778 10:-1.0 
1.0 1:-0.836453 2:-1.0 3:-0.777778 4:-0.555556 5:-1.0 6:-0.777778 7:-1.0 8:-0.777778 9:-1.0 10:-1.0 
1.0 1:-0.833797 2:-0.555556 3:-1.0 4:-1.0 5:-1.0 6:-0.777778 7:-1.0 8:-0.555556 9:-1.0 10:-1.0 
1.0 1:-0.830767 2:-0.555556 3:-0.777778 4:-1.0 5:-1.0 6:-0.777778 7:-1.0 8:-0.777778 9:-0.777778 10:-1.0 
1.0 1:-0.829297 2:-1.0 3:-0.777778 4:-0.555556 5:-1.0 6:-0.777778 7:-1.0 8:-1.0 9:-1.0 10:-1.0 
1.0 1:-0.826805 2:-0.111111 3:-0.555556 4:-0.555556 5:-1.0 6:-0.777778 7:-1.0 8:-0.777778 9:-1.0 10:-1.0 
1.0 1:-0.826759 2:-0.555556 3:-1.0 4:-1.0 5:-1.0 6:-0.777778 7:-0.333333 8:-1.0 9:-1.0 10:-1.0 
1.0 1:-0.826724 2:-1.0 3:-0.777778 4:-1.0 5:-0.555556 6:-0.777778 7:-1.0 8:-1.0 9:-0.777778 10:-1.0 
1.0 1:-0.825483 2:-0.333333 3:-0.777778 4:-0.777778 5:-1.0 6:-0.777778 7:-1.0 8:-0.777778 9:-1.0 10:-1.0 
1.0 1:-0.824738 2:-0.777778 3:-0.555556 4:-0.777778 5:-0.777778 6:-0.777778 7:-0.777778 8:-0.555556 9:-1.0 10:-1.0 
1.0 1:-0.824613 2:-0.555556 3:-1.0 4:-0.777778 5:-1.0 6:-0.777778 7:-1.0 8:-0.777778 9:-1.0 10:-1.0 
1.0 1:-0.824428 2:-0.111111 3:-1.0 4:-0.777778 5:-1.0 6:-0.777778 7:-1.0 8:-0.555556 9:-1.0 10:-1.0 
1.0 1:-0.824381 2:-0.555556 3:-0.555556 4:-0.777778 5:0.111111 6:-0.555556 7:-0.555556 8:-0.555556 9:-0.111111 10:-1.0 
1.0 1:-0.824216 2:-0.111111 3:-0.777778 4:-0.777778 5:-0.777778 6:-0.777778 7:-0.777778 8:-0.555556 9:-0.777778 10:-0.777778 
1.0 1:-0.822249 2:-0.777778 3:-0.555556 4:-1.0 5:-1.0 6:-0.111111 7:-1.0 8:-1.0 9:-1.0 10:-1.0 
1.0 1:-0.821968 2:-0.555556 3:-0.777778 4:-0.777778 5:-0.555556 6:-0.777778 7:-0.555556 8:-0.555556 9:-1.0 10:-1.0 
1.0 1:-0.82163 2:-0.333333 3:-0.555556 4:-0.555556 5:-1.0 6:-0.777778 7:-1.0 8:-0.555556 9:-0.555556 10:-1.0 
1.0 1:-0.821605 2:-0.111111 3:-1.0 4:-0.555556 5:-1.0 6:-0.777778 7:-1.0 8:-0.777778 9:-1.0 10:-1.0 
1.0 1:-0.821495 2:-0.111111 3:-0.555556 4:0.111111 5:-1.0 6:-0.777778 7:-1.0 8:-1.0 9:-1.0 10:-1.0 
1.0 1:-0.818876 2:-1.0 3:-0.555556 4:-1.0 5:-1.0 6:-0.777778 7:-1.0 8:-0.777778 9:-0.777778 10:-1.0 
1.0 1:-0.818876 2:-0.111111 3:-1.0 4:-1.0 5:-0.555556 6:-0.333333 7:-1.0 8:-0.555556 9:-0.777778 10:-1.0 
1.0 1:-0.818646 2:-0.111111 3:-1.0 4:-1.0 5:-1.0 6:-0.777778 7:-1.0 8:-0.777778 9:-0.777778 10:-1.0 
1.0 1:-0.816285 2:-0.555556 3:-0.777778 4:-0.777778 5:-0.555556 6:-0.777778 7:-1.0 8:-1.0 9:-1.0 10:-1.0 
1.0 1:-0.816285 2:0.111111 3:0.777778 4:0.333333 5:-0.111111 6:-0.111111 7:0.555556 8:-0.333333 9:-0.777778 10:-1.0 
1.0 1:-0.926045 2:-0.333333 3:-1.0 4:-0.555556 5:-0.555556 6:-0.777778 7:-1.0 8:-1.0 9:-1.0 10:-1.0 
1.0 1:-0.924855 2:-0.111111 3:-1.0 4:-1.0 5:-1.0 6:-0.777778 7:-1.0 8:-1.0 9:-1.0 10:-1.0 
1.0 1:-0.908217 2:-0.111111 3:-0.777778 4:-0.777778 5:-0.333333 6:-0.777778 7:-0.333333 8:-1.0 9:-1.0 10:-1.0 
1.0 1:-0.899823 2:-1.0 3:-1.0 4:-1.0 5:-0.555556 6:-0.777778 7:-0.555556 8:-1.0 9:-1.0 10:-1.0 
1.0 1:-0.892886 2:-0.111111 3:-1.0 4:-1.0 5:0.111111 6:-0.555556 7:-1.0 8:-0.777778 9:-1.0 10:-1.0 
1.0 1:-0.851322 2:-0.111111 3:-1.0 4:-1.0 5:-1.0 6:-0.777778 7:-1.0 8:-1.0 9:-1.0 10:-1.0 
1.0 1:-0.829961 2:-0.333333 3:-1.0 4:-1.0 5:-0.555556 6:-1.0 7:-1.0 8:-0.777778 9:-1.0 10:-1.0 
1.0 1:-0.829904 2:-0.111111 3:-1.0 4:-1.0 5:-1.0 6:-0.777778 7:-1.0 8:-1.0 9:-1.0 10:-1.0 
1.0 1:-0.826196 2:-0.555556 3:-1.0 4:-1.0 5:-0.555556 6:-0.777778 7:-1.0 8:-1.0 9:-1.0 10:-1.0 
1.0 1:-0.824503 2:-0.777778 3:-0.555556 4:-1.0 5:-1.0 6:-0.555556 7:-1.0 8:-1.0 9:-1.0 10:-1.0 
1.0 1:-0.820364 2:-0.111111 3:-1.0 4:-0.777778 5:-1.0 6:-0.777778 7:-1.0 8:-1.0 9:-1.0 10:-1.0 
1.0 1:-0.820099 2:-0.111111 3:-1.0 4:-0.555556 5:-1.0 6:-0.777778 7:-1.0 8:-1.0 9:-1.0 10:-1.0 
1.0 1:-0.820037 2:-0.111111 3:-1.0 4:-1.0 5:-0.555556 6:-0.777778 7:-1.0 8:-1.0 9:-1.0 10:-1.0 
1.0 1:-0.819964 2:-0.555556 3:-1.0 4:-1.0 5:-1.0 6:-0.777778 7:-0.111111 8:-1.0 9:-1.0 10:-1.0 
1.0 1:-0.818876 2:0.111111 3:-1.0 4:-1.0 5:-0.555556 6:-0.777778 7:-1.0 8:-1.0 9:-1.0 10:-1.0 
1.0 1:-0.818253 2:-0.333333 3:-1.0 4:-1.0 5:-1.0 6:-0.777778 7:-1.0 8:-1.0 9:-0.777778 10:-1.0 
1.0 1:-0.824449 2:0.111111 3:-1.0 4:-1.0 5:-0.555556 6:-0.777778 7:-1.0 8:-1.0 9:-1.0 10:-1.0 
1.0 1:-0.821636 2:0.111111 3:-1.0 4:-1.0 5:-1.0 6:-1.0 7:-1.0 8:-1.0 9:-1.0 10:-1.0 
1.0 1:-0.815898 2:-0.333333 3:-1.0 4:-0.777778 5:-1.0 6:-0.777778 7:-1.0 8:-1.0 9:-1.0 10:-1.0 
1.0 1:-0.815814 2:-0.111111 3:-0.777778 4:-1.0 5:-1.0 6:-0.777778 7:-1.0 8:-1.0 9:-1.0 10:-1.0 
1.0 1:-0.814942 2:-0.111111 3:-0.555556 4:-0.777778 5:-0.333333 6:-0.777778 7:-1.0 8:-1.0 9:-1.0 10:-1.0 
1.0 1:-0.891856 2:-0.111111 3:-1.0 4:-0.777778 5:-1.0 6:-0.777778 7:-1.0 8:-1.0 9:-1.0 10:-1.0 
1.0 1:-0.859809 2:-1.0 3:-1.0 4:-1.0 5:-0.555556 6:-1.0 7:-0.555556 8:-1.0 9:-1.0 10:-1.0 
1.0 1:-0.836817 2:-0.111111 3:-1.0 4:-0.777778 5:1.0 6:-0.333333 7:-0.111111 8:-0.777778 9:-1.0 10:-1.0 
1.0 1:-0.832868 2:-0.333333 3:-0.777778 4:-1.0 5:-1.0 6:-0.777778 7:-1.0 8:-1.0 9:-1.0 10:-1.0 
1.0 1:-0.829559 2:-0.333333 3:-1.0 4:-1.0 5:-1.0 6:-0.777778 7:-1.0 8:-0.777778 9:-1.0 10:-1.0 
1.0 1:-0.827559 2:-0.333333 3:-1.0 4:-1.0 5:-1.0 6:-0.777778 7:-1.0 8:-0.777778 9:-1.0 10:-1.0 
1.0 1:-0.826571 2:0.111111 3:-1.0 4:-1.0 5:-1.0 6:-0.777778 7:-1.0 8:-0.555556 9:-1.0 10:-1.0 
1.0 1:-0.824537 2:-0.333333 3:-1.0 4:-1.0 5:-1.0 6:-0.777778 7:-1.0 8:-0.777778 9:-1.0 10:-1.0 
1.0 1:-0.822187 2:-0.333333 3:-1.0 4:-1.0 5:-0.777778 6:-0.777778 7:-1.0 8:-0.777778 9:-1.0 10:-1.0 
1.0 1:-0.820398 2:-0.333333 3:-1.0 4:-1.0 5:-1.0 6:-0.777778 7:-1.0 8:-0.555556 9:-1.0 10:-1.0 
1.0 1:-0.8187 2:-0.555556 3:-0.555556 4:-1.0 5:-1.0 6:-0.777778 7:-1.0 8:-1.0 9:-1.0 10:-1.0 
1.0 1:-0.815976 2:-1.0 3:-1.0 4:-1.0 5:-1.0 6:-0.777778 7:-0.333333 8:-1.0 9:-1.0 10:-1.0 
1.0 1:-0.815316 2:-0.111111 3:-1.0 4:-1.0 5:-1.0 6:-0.777778 7:-1.0 8:-0.777778 9:-1.0 10:-1.0 
1.0 1:-0.812272 2:-0.555556 3:-1.0 4:-0.777778 5:-0.777778 6:-0.777778 7:-1.0 8:-1.0 9:-1.0 10:-1.0 
1.0 1:-0.890217 2:-0.333333 3:-1.0 4:-1.0 5:-1.0 6:-0.777778 7:-1.0 8:-0.555556 9:-1.0 10:-1.0 
1.0 1:-0.888838 2:0.111111 3:-1.0 4:-0.555556 5:-0.777778 6:-0.777778 7:-1.0 8:-1.0 9:-1.0 10:-1.0 
1.0 1:-0.879917 2:-0.333333 3:-0.777778 4:-0.777778 5:-1.0 6:-0.777778 7:-1.0 8:-0.777778 9:-1.0 10:-1.0 
1.0 1:-0.850853 2:-1.0 3:-1.0 4:-0.555556 5:-0.777778 6:-0.777778 7:-1.0 8:-0.555556 9:-1.0 10:-1.0 
1.0 1:-0.843225 2:-0.111111 3:-1.0 4:-1.0 5:-1.0 6:-0.777778 7:-1.0 8:-0.555556 9:-1.0 10:-1.0 
1.0 1:-0.842757 2:-0.111111 3:-1.0 4:-0.777778 5:-1.0 6:-0.777778 7:-1.0 8:-0.555556 9:-1.0 10:-1.0 
1.0 1:-0.839935 2:-0.333333 3:-1.0 4:-1.0 5:-1.0 6:-0.777778 7:-1.0 8:-0.777778 9:-1.0 10:-1.0 
1.0 1:-0.838392 2:0.111111 3:-1.0 4:-1.0 5:-1.0 6:-0.777778 7:-1.0 8:-0.777778 9:-1.0 10:-1.0 
1.0 1:-0.83649 2:-0.111111 3:-1.0 4:-1.0 5:-1.0 6:-0.777778 7:-0.777778 8:-0.777778 9:-1.0 10:-1.0 
1.0 1:-0.833998 2:-0.111111 3:-0.555556 4:-1.0 5:-1.0 6:-0.777778 7:-1.0 8:-1.0 9:-1.0 10:-1.0 
1.0 1:-0.832542 2:-0.333333 3:-1.0 4:-1.0 5:-1.0 6:-0.777778 7:-1.0 8:-0.777778 9:-1.0 10:-1.0 
1.0 1:-0.832191 2:-0.777778 3:-1.0 4:-0.555556 5:-0.777778 6:-0.777778 7:-1.0 8:-0.777778 9:-1.0 10:-1.0 
1.0 1:-0.83061 2:-0.111111 3:-1.0 4:-1.0 5:-1.0 6:-0.777778 7:-1.0 8:-0.777778 9:-1.0 10:-1.0 
1.0 1:-0.815316 2:-0.555556 3:-0.777778 4:-0.777778 5:-0.777778 6:-0.777778 7:-1.0 8:-0.333333 9:-0.777778 10:-1.0 
1.0 1:-0.814358 2:-0.333333 3:-0.333333 4:-0.777778 5:-1.0 6:-0.777778 7:-0.111111 8:-0.777778 9:-1.0 10:-0.777778 
1.0 1:-0.813216 2:-0.333333 3:-0.555556 4:-1.0 5:-1.0 6:-0.777778 7:-1.0 8:-0.333333 9:0.555556 10:-1.0 
1.0 1:-0.812129 2:-0.111111 3:-0.777778 4:-0.777778 5:-0.777778 6:-1.0 7:-1.0 8:-0.777778 9:-1.0 10:-1.0 
1.0 1:-0.81212 2:-0.111111 3:-1.0 4:-1.0 5:-0.555556 6:-0.777778 7:-1.0 8:-1.0 9:-1.0 10:-1.0 
1.0 1:-0.812029 2:-0.111111 3:-1.0 4:-1.0 5:-1.0 6:-0.777778 7:-1.0 8:-0.777778 9:-1.0 10:-1.0 
1.0 1:-0.812028 2:-0.111111 3:-1.0 4:-1.0 5:-1.0 6:-0.777778 7:-1.0 8:-0.555556 9:-1.0 10:-1.0 
1.0 1:-0.812028 2:-0.111111 3:-1.0 4:-1.0 5:-1.0 6:-0.777778 7:-1.0 8:-0.555556 9:-1.0 10:-1.0 
1.0 1:-0.810614 2:-0.333333 3:-1.0 4:-1.0 5:-1.0 6:-0.777778 7:-1.0 8:-0.555556 9:-0.777778 10:-1.0 
1.0 1:-0.810361 2:-0.555556 3:-1.0 4:-0.777778 5:-1.0 6:-0.777778 7:-1.0 8:-0.555556 9:-1.0 10:-1.0 
1.0 1:-0.810216 2:-0.333333 3:-1.0 4:-1.0 5:-1.0 6:-0.777778 7:-0.555556 8:-0.777778 9:-1.0 10:-1.0 
1.0 1:-0.951949 2:-0.111111 3:-1.0 4:-0.777778 5:-1.0 6:-0.777778 7:-1.0 8:-0.555556 9:-1.0 10:-1.0 
1.0 1:-0.906328 2:-0.111111 3:-1.0 4:-1.0 5:-1.0 6:-0.777778 7:-1.0 8:-0.777778 9:-1.0 10:-1.0 
1.0 1:-0.879296 2:-0.111111 3:-1.0 4:-0.777778 5:-1.0 6:-0.777778 7:-1.0 8:-0.777778 9:-1.0 10:-1.0 
1.0 1:-0.827594 2:-0.111111 3:-1.0 4:-1.0 5:0.111111 6:-0.555556 7:-1.0 8:-1.0 9:-1.0 10:-1.0 
1.0 1:-0.821017 2:-0.111111 3:-1.0 4:-1.0 5:-1.0 6:-0.777778 7:-1.0 8:-0.777778 9:-0.777778 10:-1.0 
1.0 1:-0.819462 2:-0.111111 3:-1.0 4:-1.0 5:-1.0 6:-0.777778 7:-1.0 8:-1.0 9:-1.0 10:-1.0 
1.0 1:-0.813531 2:-0.111111 3:-1.0 4:-0.777778 5:-1.0 6:-0.777778 7:-1.0 8:-1.0 9:-1.0 10:-1.0 
1.0 1:-0.812297 2:-0.111111 3:-1.0 4:-1.0 5:-1.0 6:-0.777778 7:-1.0 8:-0.777778 9:-1.0 10:-1.0 
1.0 1:-0.811525 2:-0.333333 3:-1.0 4:-0.777778 5:-1.0 6:-0.777778 7:-1.0 8:-0.777778 9:-1.0 10:-1.0 
1.0 1:-0.810367 2:-0.111111 3:-1.0 4:-0.555556 5:-1.0 6:-0.777778 7:-1.0 8:-0.555556 9:-1.0 10:-1.0 
1.0 1:-0.810128 2:-0.111111 3:-0.777778 4:-0.333333 5:-1.0 6:-1.0 7:-1.0 8:-1.0 9:-1.0 10:-1.0 
1.0 1:-0.807752 2:-0.333333 3:-1.0 4:-1.0 5:-1.0 6:-0.777778 7:-1.0 8:-0.777778 9:-1.0 10:-1.0 
1.0 1:-0.956729 2:-0.333333 3:-1.0 4:-1.0 5:-0.777778 6:-0.777778 7:-1.0 8:-1.0 9:-1.0 10:-1.0 
1.0 1:-0.91442 2:-0.111111 3:-1.0 4:-1.0 5:-1.0 6:-0.777778 7:-1.0 8:-1.0 9:-1.0 10:-1.0 
1.0 1:-0.857627 2:-0.777778 3:-0.555556 4:-1.0 5:-1.0 6:-0.777778 7:-1.0 8:-0.777778 9:-1.0 10:-1.0 
1.0 1:-0.853981 2:-0.333333 3:-1.0 4:-0.555556 5:-1.0 6:-0.777778 7:-1.0 8:-0.777778 9:-1.0 10:-1.0 
1.0 1:-0.850853 2:-0.333333 3:-1.0 4:-1.0 5:-1.0 6:-0.777778 7:-1.0 8:-0.777778 9:-1.0 10:-1.0 
1.0 1:-0.849083 2:-0.111111 3:-1.0 4:-1.0 5:-1.0 6:-0.777778 7:-1.0 8:-0.777778 9:-1.0 10:-1.0 
1.0 1:-0.84572 2:0.111111 3:-0.555556 4:-0.555556 5:-0.555556 6:-0.555556 7:-0.777778 8:0.111111 9:-1.0 10:-1.0 
1.0 1:-0.839112 2:0.333333 3:-1.0 4:-0.777778 5:-0.555556 6:-0.777778 7:-1.0 8:-0.777778 9:-1.0 10:-1.0 
1.0 1:-0.834122 2:-0.111111 3:-1.0 4:-1.0 5:-0.777778 6:-1.0 7:-1.0 8:-0.777778 9:-1.0 10:-1.0 
1.0 1:-0.83269 2:-0.555556 3:-1.0 4:-0.555556 5:-1.0 6:-0.555556 7:-0.333333 8:-1.0 9:-1.0 10:-1.0 
1.0 1:-0.831652 2:-0.777778 3:-1.0 4:-1.0 5:-1.0 6:-0.777778 7:-0.111111 8:-1.0 9:-1.0 10:-1.0 
1.0 1:-0.826449 2:0.111111 3:-0.777778 4:-0.555556 5:-1.0 6:-0.777778 7:-1.0 8:-1.0 9:-1.0 10:-1.0 
1.0 1:-0.824892 2:-0.111111 3:-1.0 4:-1.0 5:-1.0 6:-0.777778 7:-1.0 8:-0.777778 9:-1.0 10:-1.0 
1.0 1:-0.82118 2:-0.555556 3:-1.0 4:-0.333333 5:-1.0 6:-0.777778 7:-1.0 8:-1.0 9:-1.0 10:-1.0 
1.0 1:-0.818918 2:-0.333333 3:-0.777778 4:-0.333333 5:-0.555556 6:-0.777778 7:-0.777778 8:-0.777778 9:-1.0 10:-1.0 
1.0 1:-0.818622 2:-0.111111 3:-1.0 4:-1.0 5:-0.555556 6:-0.777778 7:-1.0 8:-1.0 9:-1.0 10:-1.0 
1.0 1:-0.817437 2:-0.333333 3:-1.0 4:-1.0 5:-0.555556 6:-0.777778 7:-1.0 8:-1.0 9:-1.0 10:-1.0 
1.0 1:-0.812376 2:-0.555556 3:-1.0 4:-1.0 5:-0.777778 6:-0.555556 7:-0.333333 8:-1.0 9:-1.0 10:-1.0 
1.0 1:-0.811798 2:-1.0 3:-0.777778 4:-1.0 5:-0.555556 6:-0.777778 7:-1.0 8:-0.777778 9:-1.0 10:-1.0 
1.0 1:-0.811635 2:-0.111111 3:-1.0 4:-1.0 5:-1.0 6:-0.777778 7:-1.0 8:-0.777778 9:-0.777778 10:-1.0 
1.0 1:-0.811619 2:-0.333333 3:-1.0 4:-1.0 5:-1.0 6:-0.777778 7:-1.0 8:-0.777778 9:-1.0 10:-1.0 
1.0 1:-0.811547 2:-0.555556 3:-1.0 4:-1.0 5:-1.0 6:-0.777778 7:-1.0 8:-0.555556 9:-1.0 10:-1.0 
1.0 1:-0.81077 2:-0.111111 3:-1.0 4:-1.0 5:-1.0 6:-0.777778 7:-1.0 8:-0.777778 9:-1.0 10:-1.0 
1.0 1:-0.810245 2:-0.111111 3:-0.333333 4:-0.111111 5:-1.0 6:0.555556 7:-1.0 8:-0.555556 9:0.111111 10:-1.0 
1.0 1:-0.809363 2:-0.333333 3:-1.0 4:-1.0 5:-1.0 6:-0.777778 7:-1.0 8:-0.555556 9:-1.0 10:-1.0 
1.0 1:-0.808516 2:-1.0 3:-1.0 4:-0.555556 5:-1.0 6:-0.777778 7:-1.0 8:-0.777778 9:-1.0 10:-1.0 
1.0 1:-0.808495 2:-0.555556 3:-1.0 4:-1.0 5:-0.555556 6:-0.777778 7:-1.0 8:-0.777778 9:-1.0 10:-1.0 
1.0 1:-0.808144 2:-0.111111 3:-0.777778 4:-0.777778 5:-0.777778 6:-0.777778 7:-1.0 8:-1.0 9:-1.0 10:-0.777778 
1.0 1:-0.808009 2:-0.555556 3:-1.0 4:-1.0 5:-1.0 6:-0.777778 7:-1.0 8:-0.555556 9:-1.0 10:-1.0 
1.0 1:-0.807375 2:-0.555556 3:-0.777778 4:-1.0 5:-0.777778 6:-0.777778 7:-1.0 8:-0.555556 9:-1.0 10:-1.0 
1.0 1:-0.807114 2:-0.111111 3:-0.555556 4:-0.777778 5:-1.0 6:-0.555556 7:-1.0 8:-1.0 9:-1.0 10:-1.0 
1.0 1:-0.805586 2:-0.333333 3:-1.0 4:-0.333333 5:-1.0 6:-0.777778 7:-1.0 8:-1.0 9:-1.0 10:-1.0 
1.0 1:-0.804563 2:-0.111111 3:-1.0 4:-1.0 5:-1.0 6:-0.777778 7:-1.0 8:-0.555556 9:-0.777778 10:-1.0 
1.0 1:-0.924879 2:-0.555556 3:-1.0 4:-1.0 5:-1.0 6:-0.777778 7:-1.0 8:-0.777778 9:-0.555556 10:-1.0 
1.0 1:-0.89346 2:-0.555556 3:-1.0 4:-1.0 5:-1.0 6:-0.555556 7:-0.777778 8:-1.0 9:-1.0 10:-1.0 
-1.0 1:-0.857554 2:0.555556 3:1.0 4:1.0 5:0.555556 6:0.333333 7:1.0 8:0.777778 9:0.333333 10:-1.0 
-1.0 1:-0.853868 2:-0.111111 3:-0.555556 4:-0.555556 5:-0.555556 6:-0.777778 7:-0.555556 8:-0.333333 9:-0.333333 10:-1.0 
-1.0 1:-0.853454 2:0.555556 3:0.333333 4:-0.111111 5:1.0 6:0.333333 7:0.777778 8:-0.111111 9:-0.111111 10:-0.333333 
-1.0 1:-0.852997 2:0.333333 3:-0.333333 4:0.111111 5:-0.333333 6:0.111111 7:-1.0 8:-0.333333 9:-0.555556 10:-1.0 
-1.0 1:-0.852543 2:1.0 3:0.333333 4:0.333333 5:0.111111 6:-0.333333 7:1.0 8:-0.333333 9:-1.0 10:-0.777778 
-1.0 1:-0.851958 2:0.333333 3:-0.555556 4:-0.777778 5:1.0 6:-0.111111 7:1.0 8:-0.111111 9:-0.333333 10:-0.333333 
-1.0 1:-0.851957 2:1.0 3:-0.111111 4:-0.111111 5:-0.555556 6:0.111111 7:0.333333 8:0.333333 9:1.0 10:-1.0 
-1.0 1:-0.850295 2:-0.111111 3:-0.777778 4:-0.555556 5:-0.333333 6:-0.777778 7:0.333333 8:-0.555556 9:0.111111 10:-1.0 
-1.0 1:-0.849331 2:1.0 3:0.333333 4:0.333333 5:-0.555556 6:0.555556 7:-0.111111 8:0.333333 9:-0.333333 10:-0.555556 
-1.0 1:-0.848135 2:1.0 3:1.0 4:1.0 5:0.555556 6:0.111111 7:-1.0 8:0.555556 9:0.777778 10:-1.0 
-1.0 1:-0.847478 2:-0.111111 3:-0.333333 4:-0.333333 5:0.777778 6:-0.777778 7:1.0 8:-0.111111 9:0.111111 10:-1.0 
-1.0 1:-0.846481 2:-0.777778 3:-0.111111 4:-0.555556 5:-0.555556 6:0.111111 7:0.333333 8:0.333333 9:-0.111111 10:-1.0 
-1.0 1:-0.845249 2:1.0 3:-0.333333 4:-0.555556 5:-1.0 6:-0.555556 7:-0.555556 8:0.111111 9:-0.111111 10:-0.777778 
-1.0 1:-0.845097 2:0.111111 3:1.0 4:1.0 5:-0.777778 6:0.555556 7:1.0 8:0.333333 9:-0.555556 10:-0.555556 
-1.0 1:-0.844791 2:-0.111111 3:0.111111 4:-0.111111 5:0.111111 6:1.0 7:-1.0 8:-0.555556 9:-1.0 10:-1.0 
-1.0 1:-0.844637 2:1.0 3:1.0 4:1.0 5:-0.333333 6:0.555556 7:-1.0 8:0.555556 9:1.0 10:-1.0 
-1.0 1:-0.84439 2:-0.555556 3:0.333333 4:0.333333 5:-0.333333 6:-0.333333 7:0.777778 8:-0.333333 9:0.555556 10:-1.0 
-1.0 1:-0.844156 2:0.333333 3:0.555556 4:0.333333 5:-0.777778 6:-0.333333 7:0.555556 8:-0.555556 9:0.555556 10:-0.777778 
-1.0 1:-0.843926 2:0.777778 3:-0.111111 4:0.555556 5:-1.0 6:-0.777778 7:-0.555556 8:-0.777778 9:-1.0 10:-0.111111 
-1.0 1:-0.843914 2:-0.111111 3:-0.555556 4:-0.555556 5:-0.333333 6:-0.777778 7:-0.333333 8:-0.555556 9:-0.333333 10:-1.0 
-1.0 1:-0.843667 2:1.0 3:-0.555556 4:0.111111 5:-0.777778 6:-0.555556 7:-0.111111 8:-0.333333 9:1.0 10:-0.777778 
-1.0 1:-0.843607 2:-0.111111 3:-0.111111 4:-0.111111 5:0.555556 6:1.0 7:0.555556 8:0.333333 9:-0.555556 10:0.333333 
-1.0 1:-0.843604 2:1.0 3:-0.111111 4:-0.111111 5:0.111111 6:0.555556 7:0.555556 8:0.333333 9:-1.0 10:-1.0 
-1.0 1:-0.843496 2:1.0 3:0.111111 4:0.111111 5:-0.555556 6:-0.333333 7:-0.111111 8:-0.555556 9:0.111111 10:-1.0 
-1.0 1:-0.843352 2:0.555556 3:1.0 4:1.0 5:-1.0 6:-0.555556 7:0.111111 8:-0.555556 9:0.777778 10:-1.0 
-1.0 1:-0.843228 2:0.555556 3:-0.777778 4:-0.333333 5:-1.0 6:-0.111111 7:-1.0 8:-0.111111 9:-0.333333 10:-0.333333 
-1.0 1:-0.843162 2:-0.111111 3:-0.777778 4:-0.555556 5:-1.0 6:0.111111 7:1.0 8:-0.111111 9:-1.0 10:-1.0 
-1.0 1:-0.843099 2:0.777778 3:-0.111111 4:-0.111111 5:-0.777778 6:-0.777778 7:-0.777778 8:-0.111111 9:-1.0 10:-1.0 
-1.0 1:-0.842893 2:-0.111111 3:-0.555556 4:-0.111111 5:-0.111111 6:-0.555556 7:-0.555556 8:-0.333333 9:1.0 10:-1.0 
-1.0 1:-0.842769 2:0.777778 3:1.0 4:1.0 5:-1.0 6:1.0 7:0.555556 8:-0.555556 9:-0.555556 10:-1.0 
-1.0 1:-0.842766 2:0.111111 3:-0.555556 4:-0.333333 5:-1.0 6:-0.111111 7:-0.777778 8:-0.555556 9:0.777778 10:-1.0 
-1.0 1:-0.842637 2:1.0 3:-0.333333 4:-0.777778 5:-1.0 6:-0.555556 7:-0.777778 8:-0.333333 9:-0.555556 10:1.0 
-1.0 1:-0.842481 2:-0.111111 3:-0.555556 4:-0.333333 5:-1.0 6:0.555556 7:1.0 8:-0.333333 9:0.777778 10:-1.0 
-1.0 1:-0.842105 2:0.555556 3:-0.555556 4:0.555556 5:-0.555556 6:-0.333333 7:0.777778 8:0.555556 9:0.777778 10:0.555556 
-1.0 1:-0.841731 2:0.111111 3:1.0 4:-0.777778 5:0.555556 6:1.0 7:-0.777778 8:0.333333 9:0.555556 10:1.0 
-1.0 1:-0.841437 2:0.777778 3:-0.333333 4:-0.111111 5:1.0 6:0.111111 7:1.0 8:-0.333333 9:0.555556 10:-1.0 
-1.0 1:-0.84123 2:1.0 3:0.111111 4:-0.333333 5:-1.0 6:-0.555556 7:-0.333333 8:-0.555556 9:-0.777778 10:-0.555556 
-1.0 1:-0.838052 2:-0.555556 3:-0.111111 4:0.333333 5:0.555556 6:0.555556 7:0.777778 8:0.333333 9:1.0 10:0.333333 
-1.0 1:-0.838044 2:-0.111111 3:1.0 4:0.111111 5:-1.0 6:1.0 7:-0.333333 8:-0.333333 9:1.0 10:1.0 
-1.0 1:-0.837965 2:-0.555556 3:-0.555556 4:0.111111 5:-0.333333 6:-0.111111 7:0.555556 8:-0.333333 9:-0.333333 10:-1.0 
-1.0 1:-0.837876 2:-0.555556 3:0.111111 4:0.111111 5:0.111111 6:-0.111111 7:1.0 8:0.111111 9:0.555556 10:-0.555556 
-1.0 1:-0.835329 2:0.777778 3:0.111111 4:0.777778 5:-0.777778 6:1.0 7:0.111111 8:-0.777778 9:0.777778 10:1.0 
-1.0 1:-0.835224 2:0.333333 3:-0.111111 4:0.111111 5:1.0 6:-0.111111 7:1.0 8:0.333333 9:0.777778 10:-0.333333 
-1.0 1:-0.835221 2:1.0 3:-0.555556 4:-0.111111 5:-1.0 6:1.0 7:-0.111111 8:-0.555556 9:1.0 10:-0.777778 
-1.0 1:-0.835103 2:-0.777778 3:-0.555556 4:-0.333333 5:-0.333333 6:-0.777778 7:-0.111111 8:-0.777778 9:-0.111111 10:-1.0 
-1.0 1:-0.834966 2:0.555556 3:-0.777778 4:-0.555556 5:-1.0 6:0.111111 7:-0.555556 8:0.333333 9:-1.0 10:-1.0 
-1.0 1:-0.83491 2:1.0 3:1.0 4:1.0 5:1.0 6:1.0 7:-1.0 8:0.555556 9:0.555556 10:0.555556 
-1.0 1:-0.834863 2:0.333333 3:-0.555556 4:-0.333333 5:-0.333333 6:-0.555556 7:-0.555556 8:-0.555556 9:-0.777778 10:0.333333 
-1.0 1:-0.834658 2:1.0 3:1.0 4:1.0 5:0.555556 6:-0.777778 7:1.0 8:-0.333333 9:-1.0 10:-1.0 
-1.0 1:-0.834658 2:-1.0 3:0.111111 4:0.555556 5:1.0 6:0.555556 7:1.0 8:-0.111111 9:0.333333 10:-1.0 
-1.0 1:-0.834465 2:0.111111 3:-0.111111 4:-0.333333 5:-0.333333 6:-0.555556 7:0.777778 8:0.333333 9:0.555556 10:-0.555556 
-1.0 1:-0.834445 2:0.555556 3:0.111111 4:-0.333333 5:-0.555556 6:-0.111111 7:0.777778 8:-0.555556 9:-1.0 10:-1.0 
-1.0 1:-0.834399 2:1.0 3:-0.555556 4:-0.555556 5:1.0 6:-0.777778 7:1.0 8:0.333333 9:-0.555556 10:-0.555556 
-1.0 1:-0.83424 2:1.0 3:1.0 4:1.0 5:-0.555556 6:1.0 7:0.555556 8:0.555556 9:-1.0 10:-1.0 
-1.0 1:-0.834197 2:-0.333333 3:-0.111111 4:-0.111111 5:1.0 6:-0.333333 7:1.0 8:0.333333 9:-0.111111 10:0.555556 
-1.0 1:-0.834104 2:1.0 3:1.0 4:1.0 5:-0.777778 6:1.0 7:1.0 8:-0.111111 9:-0.555556 10:-0.555556 
-1.0 1:-0.834059 2:-0.111111 3:-0.555556 4:-0.111111 5:-1.0 6:0.555556 7:1.0 8:-0.111111 9:-0.555556 10:-1.0 
-1.0 1:-0.833834 2:-0.111111 3:-0.333333 4:0.111111 5:0.333333 6:0.777778 7:0.333333 8:0.555556 9:1.0 10:-1.0 
-1.0 1:-0.833693 2:0.333333 3:-0.111111 4:-0.555556 5:0.333333 6:-0.333333 7:1.0 8:0.333333 9:-0.111111 10:-0.111111 
-1.0 1:-0.833616 2:0.555556 3:-0.555556 4:-0.111111 5:-0.333333 6:-0.111111 7:1.0 8:-1.0 9:0.111111 10:-0.777778 
-1.0 1:-0.833198 2:-0.111111 3:1.0 4:0.555556 5:1.0 6:0.555556 7:1.0 8:-0.555556 9:0.111111 10:-0.555556 
-1.0 1:-0.832632 2:0.777778 3:-0.111111 4:-0.111111 5:-0.333333 6:-0.333333 7:-0.111111 8:-0.333333 9:-0.555556 10:-0.555556 
-1.0 1:-0.83239 2:-0.555556 3:-0.333333 4:-0.111111 5:-0.777778 6:0.111111 7:0.555556 8:-0.333333 9:-1.0 10:-1.0 
-1.0 1:-0.832062 2:0.555556 3:0.555556 4:0.333333 5:-0.333333 6:1.0 7:1.0 8:0.333333 9:0.555556 10:0.333333 
-1.0 1:-0.831843 2:0.333333 3:-0.777778 4:-0.333333 5:-1.0 6:0.111111 7:1.0 8:-0.111111 9:-0.333333 10:-0.555556 
-1.0 1:-0.83184 2:1.0 3:1.0 4:0.555556 5:0.111111 6:-0.333333 7:-0.111111 8:0.555556 9:1.0 10:-1.0 
-1.0 1:-0.831386 2:-0.111111 3:-0.111111 4:-0.111111 5:0.111111 6:-0.555556 7:1.0 8:-0.555556 9:-1.0 10:-1.0 
-1.0 1:-0.830794 2:0.777778 3:0.777778 4:1.0 5:-0.555556 6:0.111111 7:1.0 8:0.333333 9:1.0 10:0.111111 
-1.0 1:-0.830701 2:1.0 3:0.333333 4:0.333333 5:-0.333333 6:-0.111111 7:1.0 8:-0.111111 9:0.333333 10:-0.777778 
-1.0 1:-0.83054 2:-0.111111 3:0.111111 4:0.333333 5:0.555556 6:0.555556 7:1.0 8:-0.555556 9:1.0 10:-0.555556 
-1.0 1:-0.83052 2:1.0 3:0.555556 4:1.0 5:1.0 6:0.111111 7:-1.0 8:-0.555556 9:-1.0 10:1.0 
-1.0 1:-0.830114 2:0.111111 3:1.0 4:1.0 5:1.0 6:0.555556 7:1.0 8:1.0 9:1.0 10:0.333333 
-1.0 1:-0.830107 2:0.555556 3:0.111111 4:-0.111111 5:-0.333333 6:-0.555556 7:1.0 8:0.111111 9:-1.0 10:-1.0 
-1.0 1:-0.830098 2:-0.111111 3:0.555556 4:0.333333 5:0.333333 6:1.0 7:1.0 8:-0.111111 9:0.333333 10:-1.0 
-1.0 1:-0.829951 2:-0.111111 3:1.0 4:1.0 5:-0.555556 6:0.555556 7:-1.0 8:-0.111111 9:1.0 10:-0.555556 
-1.0 1:-0.82982 2:-0.111111 3:-0.555556 4:-0.555556 5:-0.555556 6:0.111111 7:1.0 8:-0.555556 9:-1.0 10:-1.0 
-1.0 1:-0.829473 2:-0.111111 3:0.555556 4:0.555556 5:0.555556 6:-0.111111 7:1.0 8:0.333333 9:0.555556 10:-1.0 
-1.0 1:-0.829407 2:0.555556 3:0.333333 4:0.111111 5:-0.333333 6:-0.333333 7:1.0 8:-0.111111 9:-1.0 10:-1.0 
-1.0 1:-0.82924 2:-1.0 3:-0.111111 4:0.555556 5:0.111111 6:-0.111111 7:0.555556 8:0.333333 9:1.0 10:-1.0 
-1.0 1:-0.829218 2:1.0 3:-0.111111 4:0.111111 5:1.0 6:0.111111 7:1.0 8:0.333333 9:0.333333 10:1.0 
-1.0 1:-0.829047 2:-0.111111 3:0.555556 4:-0.333333 5:1.0 6:-0.111111 7:0.555556 8:0.777778 9:1.0 10:-1.0 
-1.0 1:-0.828603 2:1.0 3:1.0 4:1.0 5:0.555556 6:0.111111 7:0.555556 8:0.333333 9:1.0 10:-1.0 
-1.0 1:-0.828567 2:0.333333 3:-0.111111 4:1.0 5:1.0 6:1.0 7:1.0 8:-0.333333 9:1.0 10:-0.555556 
-1.0 1:-0.828005 2:0.777778 3:0.333333 4:0.333333 5:-0.111111 6:-0.111111 7:1.0 8:0.333333 9:0.555556 10:-0.555556 
-1.0 1:-0.827747 2:1.0 3:0.555556 4:0.555556 5:-0.333333 6:1.0 7:1.0 8:0.555556 9:-1.0 10:-1.0 
-1.0 1:-0.827536 2:-0.111111 3:1.0 4:1.0 5:0.777778 6:0.111111 7:1.0 8:0.333333 9:1.0 10:-0.111111 
-1.0 1:-0.827441 2:1.0 3:1.0 4:0.777778 5:-0.555556 6:0.333333 7:-0.111111 8:-0.555556 9:-0.111111 10:-1.0 
-1.0 1:-0.827324 2:0.555556 3:1.0 4:1.0 5:1.0 6:-0.111111 7:1.0 8:0.555556 9:1.0 10:0.111111 
-1.0 1:-0.827274 2:0.555556 3:1.0 4:0.555556 5:0.555556 6:-0.333333 7:0.555556 8:0.333333 9:0.333333 10:-1.0 
-1.0 1:-0.826975 2:1.0 3:1.0 4:1.0 5:1.0 6:0.333333 7:1.0 8:0.333333 9:1.0 10:-0.333333 
-1.0 1:-0.826947 2:1.0 3:1.0 4:1.0 5:1.0 6:-0.555556 7:1.0 8:1.0 9:0.111111 10:-1.0 
-1.0 1:-0.826815 2:0.555556 3:0.333333 4:0.555556 5:0.333333 6:-0.111111 7:-0.111111 8:-0.111111 9:1.0 10:-0.777778 
-1.0 1:-0.826687 2:0.111111 3:1.0 4:0.333333 5:0.333333 6:0.111111 7:-0.333333 8:0.555556 9:1.0 10:-0.777778 
-1.0 1:-0.826387 2:1.0 3:0.111111 4:-0.333333 5:-0.555556 6:1.0 7:1.0 8:0.777778 9:1.0 10:-1.0 
-1.0 1:-0.826355 2:-0.333333 3:-1.0 4:-1.0 5:-0.555556 6:-1.0 7:-0.111111 8:-0.777778 9:-1.0 10:-1.0 
-1.0 1:-0.826266 2:0.333333 3:-0.111111 4:0.111111 5:-0.555556 6:-0.555556 7:0.555556 8:0.333333 9:-0.333333 10:-1.0 
-1.0 1:-0.826176 2:1.0 3:-0.111111 4:-0.111111 5:0.111111 6:-0.555556 7:1.0 8:0.333333 9:0.777778 10:-0.777778 
-1.0 1:-0.826136 2:1.0 3:-0.111111 4:0.333333 5:-0.333333 6:-0.333333 7:1.0 8:0.555556 9:0.777778 10:-1.0 
-1.0 1:-0.826036 2:0.555556 3:0.777778 4:0.777778 5:-0.111111 6:-0.555556 7:-0.111111 8:0.333333 9:0.333333 10:-1.0 
-1.0 1:-0.825733 2:1.0 3:1.0 4:1.0 5:-0.555556 6:1.0 7:1.0 8:0.777778 9:1.0 10:-1.0 
-1.0 1:-0.825657 2:0.333333 3:-0.333333 4:0.333333 5:-0.333333 6:-0.555556 7:0.333333 8:0.333333 9:0.111111 10:-1.0 
-1.0 1:-0.825552 2:0.111111 3:0.555556 4:0.333333 5:-0.111111 6:0.111111 7:0.555556 8:0.555556 9:0.777778 10:-0.777778 
-1.0 1:-0.825427 2:1.0 3:-0.333333 4:-0.111111 5:-0.111111 6:-0.111111 7:1.0 8:-0.333333 9:-1.0 10:-1.0 
-1.0 1:-0.824033 2:1.0 3:0.555556 4:0.555556 5:-0.777778 6:0.555556 7:1.0 8:-0.333333 9:0.555556 10:1.0 
-1.0 1:-0.824015 2:0.777778 3:0.555556 4:0.555556 5:-0.111111 6:0.111111 7:-0.777778 8:-0.333333 9:1.0 10:-0.333333 
-1.0 1:-0.823913 2:0.555556 3:1.0 4:1.0 5:0.555556 6:0.111111 7:0.777778 8:-0.555556 9:1.0 10:1.0 
-1.0 1:-0.82378 2:1.0 3:-0.333333 4:-0.555556 5:-0.777778 6:-0.555556 7:1.0 8:-0.111111 9:-0.555556 10:-0.777778 
-1.0 1:-0.987826 2:0.555556 3:1.0 4:1.0 5:0.555556 6:-0.111111 7:1.0 8:0.333333 9:0.555556 10:-1.0 
-1.0 1:-0.987742 2:0.555556 3:-0.333333 4:-0.333333 5:-1.0 6:-0.777778 7:0.777778 8:-0.555556 9:-0.555556 10:-1.0 
-1.0 1:-0.980901 2:1.0 3:-0.333333 4:-0.333333 5:1.0 6:-0.777778 7:1.0 8:-0.111111 9:-0.555556 10:-0.555556 
-1.0 1:-0.845097 2:0.111111 3:1.0 4:1.0 5:-0.777778 6:0.555556 7:1.0 8:0.333333 9:-0.555556 10:-0.555556 
-1.0 1:-0.842769 2:0.777778 3:1.0 4:1.0 5:-1.0 6:1.0 7:0.555556 8:-0.555556 9:-0.555556 10:-1.0 
-1.0 1:-0.83491 2:-0.111111 3:0.111111 4:0.111111 5:-0.777778 6:-0.333333 7:1.0 8:-0.555556 9:0.111111 10:-1.0 
-1.0 1:-0.971284 2:1.0 3:-0.111111 4:0.555556 5:1.0 6:-0.555556 7:1.0 8:-0.111111 9:-1.0 10:-0.555556 
-1.0 1:-0.970105 2:-0.111111 3:1.0 4:1.0 5:0.111111 6:1.0 7:1.0 8:1.0 9:0.111111 10:-0.111111 
-1.0 1:-0.968522 2:0.555556 3:0.555556 4:0.777778 5:-0.333333 6:-0.111111 7:1.0 8:0.333333 9:0.555556 10:-1.0 
-1.0 1:-0.964179 2:1.0 3:-0.333333 4:-0.333333 5:1.0 6:0.111111 7:1.0 8:-0.111111 9:-0.111111 10:-1.0 
-1.0 1:-0.962504 2:0.333333 3:0.777778 4:-0.333333 5:1.0 6:1.0 7:-0.555556 8:-0.111111 9:-0.555556 10:-0.555556 
-1.0 1:-0.830443 2:1.0 3:1.0 4:0.111111 5:-0.555556 6:-0.555556 7:1.0 8:-0.333333 9:-0.555556 10:-0.777778 
-1.0 1:-0.961571 2:-0.555556 3:-0.555556 4:-0.111111 5:-0.777778 6:-0.555556 7:1.0 8:0.333333 9:-1.0 10:-1.0 
-1.0 1:-0.961011 2:1.0 3:0.555556 4:0.555556 5:-0.777778 6:-0.555556 7:-0.333333 8:0.555556 9:0.333333 10:0.555556 
-1.0 1:-0.951092 2:0.555556 3:-0.333333 4:0.333333 5:-1.0 6:-0.555556 7:1.0 8:-0.555556 9:0.777778 10:-0.777778 
-1.0 1:-0.961571 2:-0.555556 3:-0.555556 4:-0.111111 5:-0.777778 6:-0.555556 7:1.0 8:0.333333 9:-1.0 10:-1.0 
-1.0 1:-0.945407 2:0.333333 3:-0.777778 4:-0.333333 5:-1.0 6:-0.555556 7:-0.333333 8:-0.555556 9:-0.555556 10:-1.0 
-1.0 1:-0.938238 2:1.0 3:-0.111111 4:0.333333 5:-0.555556 6:-0.555556 7:0.333333 8:-0.555556 9:-0.555556 10:0.555556 
-1.0 1:-0.936555 2:-1.0 3:-0.333333 4:-0.555556 5:1.0 6:-0.333333 7:1.0 8:-0.111111 9:0.111111 10:-1.0 
-1.0 1:-0.935943 2:1.0 3:-0.333333 4:0.111111 5:-1.0 6:-0.777778 7:1.0 8:-0.111111 9:-0.555556 10:-1.0 
-1.0 1:-0.933558 2:0.333333 3:-0.333333 4:-0.111111 5:1.0 6:-0.777778 7:1.0 8:-0.555556 9:0.555556 10:-0.777778 
-1.0 1:-0.930701 2:0.555556 3:1.0 4:1.0 5:1.0 6:0.555556 7:1.0 8:1.0 9:0.333333 10:-0.555556 
-1.0 1:-0.930408 2:1.0 3:1.0 4:1.0 5:1.0 6:1.0 7:1.0 8:-0.333333 9:1.0 10:1.0 
-1.0 1:-0.928283 2:0.111111 3:-1.0 4:-0.555556 5:-1.0 6:-0.333333 7:-0.111111 8:-0.111111 9:1.0 10:-1.0 
-1.0 1:-0.926428 2:-0.111111 3:0.111111 4:0.111111 5:0.555556 6:0.111111 7:1.0 8:-0.333333 9:1.0 10:-0.333333 
-1.0 1:-0.919664 2:1.0 3:-0.333333 4:-0.333333 5:0.111111 6:-0.777778 7:1.0 8:-0.777778 9:-0.555556 10:-1.0 
-1.0 1:-0.918849 2:-0.111111 3:-0.111111 4:0.333333 5:0.555556 6:0.111111 7:1.0 8:0.333333 9:-0.333333 10:-1.0 
-1.0 1:-1.0 2:0.777778 3:-1.0 4:-0.777778 5:0.111111 6:-0.333333 7:1.0 8:0.333333 9:0.333333 10:-0.777778 
-1.0 1:-0.914499 2:0.555556 3:-0.333333 4:1.0 5:-0.111111 6:-0.333333 7:-0.333333 8:0.333333 9:1.0 10:-1.0 
-1.0 1:-0.913767 2:1.0 3:1.0 4:1.0 5:0.333333 6:0.777778 7:1.0 8:0.333333 9:1.0 10:1.0 
-1.0 1:-0.911821 2:0.555556 3:-0.555556 4:-0.333333 5:0.777778 6:-0.555556 7:1.0 8:-0.555556 9:-0.555556 10:-1.0 
-1.0 1:-0.910945 2:1.0 3:0.555556 4:-0.333333 5:-0.333333 6:-0.333333 7:1.0 8:-0.555556 9:1.0 10:-0.333333 
-1.0 1:-0.909816 2:0.333333 3:0.555556 4:0.333333 5:0.111111 6:-0.333333 7:-0.555556 8:0.555556 9:0.555556 10:-0.333333 
-1.0 1:-0.906168 2:0.555556 3:0.111111 4:-0.333333 5:1.0 6:1.0 7:-1.0 8:-0.555556 9:-0.111111 10:-1.0 
-1.0 1:-0.903958 2:-0.111111 3:-0.111111 4:-0.111111 5:-0.777778 6:-0.111111 7:1.0 8:-0.333333 9:-0.555556 10:-1.0 
-1.0 1:-0.90353 2:0.111111 3:0.555556 4:0.333333 5:0.555556 6:0.111111 7:0.555556 8:0.555556 9:0.777778 10:-1.0 
-1.0 1:-0.900305 2:0.333333 3:0.111111 4:-0.555556 5:-0.777778 6:-0.111111 7:1.0 8:0.333333 9:-0.333333 10:0.111111 
-1.0 1:-0.899866 2:-0.111111 3:-0.333333 4:0.111111 5:1.0 6:-0.777778 7:1.0 8:-0.333333 9:-1.0 10:-1.0 
-1.0 1:-0.897016 2:1.0 3:-1.0 4:-1.0 5:-1.0 6:-0.777778 7:1.0 8:-0.111111 9:-0.333333 10:-1.0 
-1.0 1:-0.895956 2:0.555556 3:1.0 4:-0.555556 5:-0.777778 6:0.111111 7:-0.333333 8:-0.555556 9:1.0 10:-1.0 
-1.0 1:-0.89592 2:1.0 3:-0.333333 4:0.111111 5:-0.333333 6:-0.111111 7:1.0 8:0.333333 9:-1.0 10:-1.0 
-1.0 1:-0.998056 2:1.0 3:-0.333333 4:0.333333 5:-0.777778 6:-0.777778 7:0.555556 8:0.111111 9:-1.0 10:-1.0 
-1.0 1:-0.892191 2:-0.111111 3:-0.333333 4:0.111111 5:0.111111 6:-0.333333 7:1.0 8:-0.333333 9:-0.555556 10:-1.0 
-1.0 1:-0.89213 2:0.555556 3:0.111111 4:0.333333 5:-0.555556 6:-0.555556 7:1.0 8:-0.555556 9:-0.333333 10:-0.777778 
-1.0 1:-0.890381 2:0.111111 3:-0.111111 4:-0.111111 5:0.555556 6:-0.333333 7:1.0 8:-0.555556 9:-0.333333 10:-1.0 
-1.0 1:-0.889023 2:0.555556 3:-0.111111 4:-0.111111 5:-0.111111 6:-0.777778 7:1.0 8:-0.333333 9:-0.555556 10:-1.0 
-1.0 1:-0.888501 2:1.0 3:-0.555556 4:-0.555556 5:-1.0 6:-0.777778 7:1.0 8:0.333333 9:0.111111 10:-1.0 
-1.0 1:-0.886572 2:0.333333 3:0.111111 4:-0.333333 5:0.555556 6:1.0 7:1.0 8:0.777778 9:-0.111111 10:-0.555556 
-1.0 1:-0.885169 2:-0.555556 3:-0.333333 4:-0.333333 5:1.0 6:-0.111111 7:-1.0 8:-0.555556 9:-0.555556 10:-1.0 
-1.0 1:-0.885118 2:-0.333333 3:-0.777778 4:-0.555556 5:-0.111111 6:-0.555556 7:0.555556 8:0.333333 9:0.111111 10:-1.0 
-1.0 1:-0.88239 2:-0.777778 3:0.333333 4:1.0 5:1.0 6:0.333333 7:1.0 8:-0.333333 9:0.777778 10:-0.333333 
-1.0 1:-0.881145 2:-0.111111 3:-0.555556 4:-0.555556 5:-1.0 6:-0.555556 7:-0.555556 8:-0.555556 9:-0.555556 10:-0.555556 
-1.0 1:-0.881118 2:0.555556 3:1.0 4:1.0 5:0.333333 6:1.0 7:1.0 8:0.333333 9:-0.555556 10:0.555556 
-1.0 1:-0.880076 2:0.555556 3:1.0 4:-0.111111 5:-0.555556 6:0.555556 7:-0.333333 8:-0.333333 9:1.0 10:-0.555556 
-1.0 1:-0.878997 2:1.0 3:-0.555556 4:-0.111111 5:-0.333333 6:-0.555556 7:0.333333 8:-0.555556 9:-0.111111 10:-0.555556 
-1.0 1:-0.878438 2:0.111111 3:1.0 4:1.0 5:1.0 6:1.0 7:1.0 8:0.555556 9:1.0 10:1.0 
-1.0 1:-0.878341 2:-0.555556 3:1.0 4:-0.555556 5:1.0 6:0.111111 7:1.0 8:-0.111111 9:-1.0 10:-0.333333 
-1.0 1:-0.995169 2:0.111111 3:1.0 4:1.0 5:1.0 6:0.555556 7:1.0 8:0.333333 9:1.0 10:0.333333 
-1.0 1:-0.985524 2:-0.111111 3:0.555556 4:0.555556 5:1.0 6:-0.111111 7:1.0 8:0.555556 9:1.0 10:-0.555556 
-1.0 1:-0.883048 2:1.0 3:0.111111 4:-0.555556 5:0.111111 6:-0.333333 7:1.0 8:0.333333 9:0.555556 10:-0.333333 
-1.0 1:-0.848128 2:0.333333 3:0.111111 4:0.111111 5:-0.555556 6:-0.777778 7:1.0 8:0.333333 9:-1.0 10:-1.0 
-1.0 1:-0.837449 2:1.0 3:0.555556 4:0.333333 5:-0.333333 6:-0.555556 7:1.0 8:0.333333 9:0.777778 10:-1.0 
-1.0 1:-0.828558 2:-0.555556 3:1.0 4:0.555556 5:0.333333 6:0.111111 7:0.777778 8:0.777778 9:-0.555556 10:0.555556 
-1.0 1:-0.82447 2:1.0 3:1.0 4:1.0 5:0.111111 6:0.555556 7:-0.333333 8:0.555556 9:-0.111111 10:-1.0 
-1.0 1:-0.824423 2:0.555556 3:-0.111111 4:0.111111 5:-0.777778 6:-0.555556 7:1.0 8:0.111111 9:0.111111 10:-1.0 
-1.0 1:-0.824364 2:0.555556 3:0.333333 4:0.555556 5:-0.111111 6:1.0 7:1.0 8:0.333333 9:-0.777778 10:-1.0 
-1.0 1:-0.821697 2:1.0 3:1.0 4:1.0 5:0.333333 6:1.0 7:1.0 8:0.555556 9:-0.777778 10:-1.0 
-1.0 1:-0.821496 2:0.777778 3:1.0 4:1.0 5:1.0 6:1.0 7:1.0 8:1.0 9:1.0 10:-1.0 
-1.0 1:-0.82036 2:0.555556 3:0.333333 4:0.555556 5:-0.777778 6:-0.333333 7:-0.777778 8:-0.111111 9:1.0 10:-1.0 
-1.0 1:-0.816117 2:1.0 3:0.555556 4:1.0 5:-1.0 6:-0.555556 7:1.0 8:-0.111111 9:-1.0 10:-1.0 
-1.0 1:-0.816024 2:1.0 3:1.0 4:1.0 5:-1.0 6:0.111111 7:-1.0 8:-0.777778 9:0.555556 10:-1.0 
-1.0 1:-0.918634 2:1.0 3:-0.333333 4:-0.555556 5:1.0 6:-0.333333 7:1.0 8:1.0 9:-1.0 10:-1.0 
-1.0 1:-0.831204 2:-0.111111 3:0.333333 4:0.777778 5:0.555556 6:0.111111 7:1.0 8:0.555556 9:1.0 10:-1.0 
-1.0 1:-0.825611 2:-0.333333 3:-0.111111 4:-0.111111 5:0.555556 6:0.111111 7:1.0 8:1.0 9:0.333333 10:-1.0 
-1.0 1:-0.823286 2:1.0 3:-0.777778 4:-0.777778 5:-1.0 6:-0.777778 7:0.111111 8:-1.0 9:-1.0 10:-0.777778 
-1.0 1:-0.821657 2:1.0 3:0.111111 4:-0.111111 5:0.555556 6:-0.111111 7:1.0 8:0.555556 9:0.111111 10:-1.0 
-1.0 1:-0.821427 2:0.555556 3:0.555556 4:0.777778 5:0.111111 6:0.111111 7:-0.555556 8:1.0 9:1.0 10:-1.0 
-1.0 1:-0.815817 2:1.0 3:0.777778 4:0.555556 5:0.333333 6:0.111111 7:-0.333333 8:0.333333 9:1.0 10:-0.555556 
-1.0 1:-0.815541 2:1.0 3:0.111111 4:0.111111 5:-0.777778 6:-0.333333 7:1.0 8:0.777778 9:0.333333 10:-1.0 
-1.0 1:-0.815365 2:0.111111 3:0.111111 4:0.111111 5:-0.111111 6:-0.333333 7:1.0 8:0.333333 9:0.111111 10:-0.777778 
-1.0 1:-0.81543 2:-0.333333 3:0.555556 4:0.333333 5:1.0 6:-0.333333 7:1.0 8:0.333333 9:-0.111111 10:-1.0 
-1.0 1:-0.812591 2:0.777778 3:1.0 4:1.0 5:1.0 6:1.0 7:-0.111111 8:1.0 9:1.0 10:1.0 
-1.0 1:-0.938647 2:0.555556 3:0.333333 4:0.555556 5:-0.111111 6:-0.111111 7:1.0 8:0.777778 9:1.0 10:-1.0 
-1.0 1:-0.849065 2:1.0 3:1.0 4:1.0 5:1.0 6:0.111111 7:1.0 8:0.555556 9:-1.0 10:-0.111111 
-1.0 1:-0.848708 2:-0.555556 3:0.111111 4:-0.333333 5:1.0 6:-0.555556 7:-0.555556 8:-0.555556 9:-0.333333 10:-1.0 
-1.0 1:-0.847545 2:0.111111 3:-0.555556 4:-0.777778 5:-1.0 6:-0.555556 7:-0.333333 8:-0.333333 9:-1.0 10:-1.0 
-1.0 1:-0.84231 2:-0.111111 3:0.555556 4:0.777778 5:-0.333333 6:-0.555556 7:1.0 8:0.333333 9:-1.0 10:-1.0 
-1.0 1:-0.838797 2:-0.111111 3:1.0 4:1.0 5:1.0 6:0.111111 7:1.0 8:0.111111 9:-0.111111 10:-0.777778 
-1.0 1:-0.817255 2:0.555556 3:1.0 4:1.0 5:1.0 6:0.333333 7:-0.111111 8:-0.333333 9:0.555556 10:0.333333 
-1.0 1:-0.814366 2:0.111111 3:0.111111 4:0.333333 5:1.0 6:-0.555556 7:1.0 8:0.555556 9:1.0 10:-0.777778 
-1.0 1:-0.813315 2:-0.333333 3:1.0 4:-0.333333 5:0.333333 6:-0.555556 7:1.0 8:0.777778 9:1.0 10:-1.0 
-1.0 1:-0.810759 2:-0.333333 3:0.333333 4:0.555556 5:-0.555556 6:-0.333333 7:1.0 8:0.777778 9:-1.0 10:-1.0 
-1.0 1:-0.947887 2:1.0 3:-0.333333 4:-0.111111 5:-0.333333 6:-0.555556 7:-0.111111 8:0.333333 9:-0.555556 10:-1.0 
-1.0 1:-0.909082 2:0.333333 3:-0.111111 4:0.111111 5:1.0 6:-0.333333 7:1.0 8:-0.111111 9:-0.555556 10:-1.0 
-1.0 1:-0.884384 2:0.333333 3:-0.333333 4:-0.333333 5:-0.555556 6:-0.333333 7:1.0 8:0.111111 9:0.777778 10:-1.0 
-1.0 1:-0.826885 2:0.111111 3:1.0 4:1.0 5:1.0 6:-0.333333 7:1.0 8:0.333333 9:1.0 10:-1.0 
-1.0 1:-0.824111 2:0.333333 3:0.555556 4:-0.555556 5:0.333333 6:-0.333333 7:-0.111111 8:0.333333 9:0.555556 10:-0.777778 
-1.0 1:-0.810613 2:-0.111111 3:0.333333 4:1.0 5:1.0 6:-0.111111 7:1.0 8:1.0 9:1.0 10:-1.0 
-1.0 1:-0.808872 2:0.555556 3:-0.333333 4:-0.333333 5:-1.0 6:0.111111 7:1.0 8:-0.777778 9:-0.111111 10:-0.777778 
-1.0 1:-0.808827 2:1.0 3:1.0 4:0.555556 5:1.0 6:0.111111 7:-0.111111 8:1.0 9:-0.555556 10:-1.0 
-1.0 1:-0.808715 2:0.555556 3:1.0 4:-0.333333 5:-0.333333 6:0.555556 7:1.0 8:0.555556 9:-0.777778 10:-1.0 
-1.0 1:-0.988118 2:0.333333 3:0.111111 4:1.0 5:-0.111111 6:-0.555556 7:1.0 8:0.777778 9:1.0 10:-0.777778 
-1.0 1:-0.952968 2:1.0 3:0.777778 4:0.333333 5:-0.555556 6:-0.333333 7:-0.777778 8:0.333333 9:0.333333 10:-1.0 
-1.0 1:-0.878279 2:-0.111111 3:0.333333 4:1.0 5:0.111111 6:-0.111111 7:1.0 8:0.333333 9:-0.111111 10:-1.0 
-1.0 1:-0.844028 2:0.111111 3:1.0 4:-0.111111 5:-0.111111 6:-0.333333 7:1.0 8:0.111111 9:1.0 10:-1.0 
-1.0 1:-0.822095 2:0.555556 3:1.0 4:1.0 5:1.0 6:0.111111 7:1.0 8:1.0 9:1.0 10:-1.0 
-1.0 1:-0.820043 2:0.777778 3:0.555556 4:0.555556 5:0.777778 6:0.111111 7:-0.555556 8:-0.333333 9:-1.0 10:-1.0 
-1.0 1:-0.816162 2:-0.333333 3:1.0 4:0.555556 5:-0.111111 6:-0.333333 7:-1.0 8:1.0 9:-1.0 10:-1.0 
-1.0 1:-0.815973 2:-0.777778 3:-0.111111 4:0.333333 5:0.111111 6:-0.333333 7:1.0 8:0.333333 9:0.111111 10:-1.0 
-1.0 1:-0.815531 2:1.0 3:-0.555556 4:-0.333333 5:-0.111111 6:-0.555556 7:1.0 8:-0.333333 9:-1.0 10:-1.0 
-1.0 1:-0.812989 2:-0.333333 3:0.555556 4:0.111111 5:-0.555556 6:-0.333333 7:1.0 8:0.333333 9:-1.0 10:-1.0 
-1.0 1:-0.807439 2:-0.111111 3:-0.333333 4:0.111111 5:0.555556 6:-0.333333 7:-1.0 8:0.555556 9:1.0 10:-1.0 
-1.0 1:-0.981337 2:-0.111111 3:-0.555556 4:-0.777778 5:0.555556 6:-0.111111 7:1.0 8:0.555556 9:-1.0 10:-0.777778 
-1.0 1:-0.956828 2:1.0 3:-0.111111 4:1.0 5:-0.555556 6:-0.111111 7:0.555556 8:0.333333 9:0.555556 10:-0.555556 
-1.0 1:-0.926188 2:-0.111111 3:1.0 4:1.0 5:1.0 6:1.0 7:1.0 8:1.0 9:-1.0 10:-1.0 
-1.0 1:-0.899518 2:1.0 3:-0.333333 4:-0.555556 5:1.0 6:-0.555556 7:1.0 8:0.333333 9:-1.0 10:-0.777778 
-1.0 1:-0.889455 2:-0.111111 3:1.0 4:1.0 5:1.0 6:-0.111111 7:-0.777778 8:0.555556 9:-0.111111 10:-1.0 
-1.0 1:-0.886572 2:0.555556 3:1.0 4:1.0 5:1.0 6:0.111111 7:1.0 8:1.0 9:1.0 10:1.0 
-1.0 1:-0.831676 2:-0.333333 3:0.111111 4:0.111111 5:-0.111111 6:0.333333 7:0.111111 8:0.333333 9:0.333333 10:-0.555556 
-1.0 1:-0.822182 2:0.555556 3:0.333333 4:-0.333333 5:-0.333333 6:-0.111111 7:-0.555556 8:-0.111111 9:1.0 10:-1.0 
-1.0 1:-0.819942 2:1.0 3:1.0 4:0.333333 5:0.555556 6:0.333333 7:-1.0 8:1.0 9:1.0 10:-0.555556 
-1.0 1:-0.812944 2:-0.111111 3:1.0 4:1.0 5:1.0 6:1.0 7:-0.777778 8:1.0 9:1.0 10:1.0 
-1.0 1:-0.810224 2:0.333333 3:0.555556 4:0.555556 5:0.333333 6:-0.555556 7:1.0 8:0.333333 9:-0.777778 10:-0.555556 
-1.0 1:-0.807789 2:-0.111111 3:0.333333 4:-0.333333 5:-1.0 6:0.111111 7:-1.0 8:0.333333 9:1.0 10:-0.555556 
-1.0 1:-0.807774 2:-0.111111 3:1.0 4:1.0 5:0.555556 6:-0.111111 7:-0.111111 8:0.333333 9:1.0 10:-1.0 
-1.0 1:-0.807412 2:-0.555556 3:1.0 4:0.333333 5:0.555556 6:-0.111111 7:0.555556 8:0.333333 9:-0.333333 10:-1.0 
-1.0 1:-0.804877 2:1.0 3:1.0 4:1.0 5:1.0 6:-0.111111 7:1.0 8:1.0 9:1.0 10:0.333333 
-1.0 1:-0.804697 2:-0.111111 3:1.0 4:1.0 5:1.0 6:-0.333333 7:1.0 8:-0.111111 9:0.111111 10:-0.555556 
-1.0 1:-0.90565 2:-0.111111 3:1.0 4:1.0 5:-0.111111 6:-0.333333 7:-0.111111 8:-0.333333 9:-0.333333 10:-1.0 
-1.0 1:-0.876716 2:-0.111111 3:1.0 4:1.0 5:-0.555556 6:0.333333 7:-0.555556 8:0.555556 9:1.0 10:-0.777778 
-1.0 1:-0.875424 2:-0.333333 3:0.555556 4:0.111111 5:-0.333333 6:-0.555556 7:-0.333333 8:1.0 9:0.111111 10:-1.0 
-1.0 1:-0.875424 2:-0.333333 3:0.555556 4:0.555556 5:-0.111111 6:-0.333333 7:-0.111111 8:1.0 9:-0.333333 10:-1.0 
