svm_type c_svc
kernel_type linear
nr_class 2
total_sv 4
rho 9.664935953968993
label 1 -1
nr_sv 2 2
SV
0.4707197520767422 1:9.0 2:6.0 
0.2452174548163101 1:4.0 2:8.0 
-0.04770261573635037 1:2.0 2:7.0 
-0.668234591156702 1:7.0 2:5.0 
